digraph Tree {
node [shape=box, fontname="helvetica"] ;
edge [fontname="helvetica"] ;
0 [label="X[1] <= -590.715\ngini = 0.899\nsamples = 1000\nvalue = [108, 89, 99, 112, 114, 83, 106, 102, 96, 91]"] ;
1 [label="X[5] <= 227.642\ngini = 0.734\nsamples = 309\nvalue = [81, 86, 2, 104, 14, 0, 21, 0, 1, 0]"] ;
0 -> 1 [labeldistance=2.5, labelangle=45, headlabel="True"] ;
2 [label="X[4] <= -196.951\ngini = 0.661\nsamples = 224\nvalue = [10, 84, 2, 97, 14, 0, 16, 0, 1, 0]"] ;
1 -> 2 ;
3 [label="X[28] <= -120.859\ngini = 0.156\nsamples = 73\nvalue = [2, 67, 1, 2, 1, 0, 0, 0, 0, 0]"] ;
2 -> 3 ;
4 [label="X[153] <= -9.244\ngini = 0.72\nsamples = 5\nvalue = [1, 0, 1, 2, 1, 0, 0, 0, 0, 0]"] ;
3 -> 4 ;
5 [label="gini = 0.0\nsamples = 2\nvalue = [0, 0, 0, 2, 0, 0, 0, 0, 0, 0]"] ;
4 -> 5 ;
6 [label="X[6] <= -158.331\ngini = 0.667\nsamples = 3\nvalue = [1, 0, 1, 0, 1, 0, 0, 0, 0, 0]"] ;
4 -> 6 ;
7 [label="gini = 0.0\nsamples = 1\nvalue = [0, 0, 1, 0, 0, 0, 0, 0, 0, 0]"] ;
6 -> 7 ;
8 [label="X[99] <= 74.354\ngini = 0.5\nsamples = 2\nvalue = [1, 0, 0, 0, 1, 0, 0, 0, 0, 0]"] ;
6 -> 8 ;
9 [label="gini = 0.0\nsamples = 1\nvalue = [1, 0, 0, 0, 0, 0, 0, 0, 0, 0]"] ;
8 -> 9 ;
10 [label="gini = 0.0\nsamples = 1\nvalue = [0, 0, 0, 0, 1, 0, 0, 0, 0, 0]"] ;
8 -> 10 ;
11 [label="X[3] <= 337.101\ngini = 0.029\nsamples = 68\nvalue = [1, 67, 0, 0, 0, 0, 0, 0, 0, 0]"] ;
3 -> 11 ;
12 [label="gini = 0.0\nsamples = 67\nvalue = [0, 67, 0, 0, 0, 0, 0, 0, 0, 0]"] ;
11 -> 12 ;
13 [label="gini = 0.0\nsamples = 1\nvalue = [1, 0, 0, 0, 0, 0, 0, 0, 0, 0]"] ;
11 -> 13 ;
14 [label="X[9] <= -82.357\ngini = 0.57\nsamples = 151\nvalue = [8, 17, 1, 95, 13, 0, 16, 0, 1, 0]"] ;
2 -> 14 ;
15 [label="X[21] <= -196.014\ngini = 0.192\nsamples = 77\nvalue = [0, 5, 0, 69, 0, 0, 2, 0, 1, 0]"] ;
14 -> 15 ;
16 [label="gini = 0.0\nsamples = 2\nvalue = [0, 2, 0, 0, 0, 0, 0, 0, 0, 0]"] ;
15 -> 16 ;
17 [label="X[137] <= 59.124\ngini = 0.151\nsamples = 75\nvalue = [0, 3, 0, 69, 0, 0, 2, 0, 1, 0]"] ;
15 -> 17 ;
18 [label="X[2] <= 367.47\ngini = 0.105\nsamples = 73\nvalue = [0, 3, 0, 69, 0, 0, 1, 0, 0, 0]"] ;
17 -> 18 ;
19 [label="X[21] <= 295.354\ngini = 0.08\nsamples = 72\nvalue = [0, 3, 0, 69, 0, 0, 0, 0, 0, 0]"] ;
18 -> 19 ;
20 [label="X[50] <= 168.525\ngini = 0.055\nsamples = 71\nvalue = [0, 2, 0, 69, 0, 0, 0, 0, 0, 0]"] ;
19 -> 20 ;
21 [label="X[8] <= -181.336\ngini = 0.028\nsamples = 70\nvalue = [0, 1, 0, 69, 0, 0, 0, 0, 0, 0]"] ;
20 -> 21 ;
22 [label="gini = 0.0\nsamples = 1\nvalue = [0, 1, 0, 0, 0, 0, 0, 0, 0, 0]"] ;
21 -> 22 ;
23 [label="gini = 0.0\nsamples = 69\nvalue = [0, 0, 0, 69, 0, 0, 0, 0, 0, 0]"] ;
21 -> 23 ;
24 [label="gini = 0.0\nsamples = 1\nvalue = [0, 1, 0, 0, 0, 0, 0, 0, 0, 0]"] ;
20 -> 24 ;
25 [label="gini = 0.0\nsamples = 1\nvalue = [0, 1, 0, 0, 0, 0, 0, 0, 0, 0]"] ;
19 -> 25 ;
26 [label="gini = 0.0\nsamples = 1\nvalue = [0, 0, 0, 0, 0, 0, 1, 0, 0, 0]"] ;
18 -> 26 ;
27 [label="X[114] <= 6.232\ngini = 0.5\nsamples = 2\nvalue = [0, 0, 0, 0, 0, 0, 1, 0, 1, 0]"] ;
17 -> 27 ;
28 [label="gini = 0.0\nsamples = 1\nvalue = [0, 0, 0, 0, 0, 0, 1, 0, 0, 0]"] ;
27 -> 28 ;
29 [label="gini = 0.0\nsamples = 1\nvalue = [0, 0, 0, 0, 0, 0, 0, 0, 1, 0]"] ;
27 -> 29 ;
30 [label="X[24] <= -112.275\ngini = 0.772\nsamples = 74\nvalue = [8, 12, 1, 26, 13, 0, 14, 0, 0, 0]"] ;
14 -> 30 ;
31 [label="X[33] <= -54.331\ngini = 0.314\nsamples = 11\nvalue = [0, 9, 0, 1, 0, 0, 1, 0, 0, 0]"] ;
30 -> 31 ;
32 [label="X[73] <= -25.145\ngini = 0.5\nsamples = 2\nvalue = [0, 0, 0, 1, 0, 0, 1, 0, 0, 0]"] ;
31 -> 32 ;
33 [label="gini = 0.0\nsamples = 1\nvalue = [0, 0, 0, 0, 0, 0, 1, 0, 0, 0]"] ;
32 -> 33 ;
34 [label="gini = 0.0\nsamples = 1\nvalue = [0, 0, 0, 1, 0, 0, 0, 0, 0, 0]"] ;
32 -> 34 ;
35 [label="gini = 0.0\nsamples = 9\nvalue = [0, 9, 0, 0, 0, 0, 0, 0, 0, 0]"] ;
31 -> 35 ;
36 [label="X[10] <= -7.627\ngini = 0.739\nsamples = 63\nvalue = [8, 3, 1, 25, 13, 0, 13, 0, 0, 0]"] ;
30 -> 36 ;
37 [label="X[9] <= 137.152\ngini = 0.562\nsamples = 32\nvalue = [1, 0, 1, 18, 11, 0, 1, 0, 0, 0]"] ;
36 -> 37 ;
38 [label="X[168] <= 40.962\ngini = 0.335\nsamples = 20\nvalue = [0, 0, 0, 16, 3, 0, 1, 0, 0, 0]"] ;
37 -> 38 ;
39 [label="X[85] <= -60.961\ngini = 0.111\nsamples = 17\nvalue = [0, 0, 0, 16, 0, 0, 1, 0, 0, 0]"] ;
38 -> 39 ;
40 [label="gini = 0.0\nsamples = 1\nvalue = [0, 0, 0, 0, 0, 0, 1, 0, 0, 0]"] ;
39 -> 40 ;
41 [label="gini = 0.0\nsamples = 16\nvalue = [0, 0, 0, 16, 0, 0, 0, 0, 0, 0]"] ;
39 -> 41 ;
42 [label="gini = 0.0\nsamples = 3\nvalue = [0, 0, 0, 0, 3, 0, 0, 0, 0, 0]"] ;
38 -> 42 ;
43 [label="X[21] <= 22.217\ngini = 0.514\nsamples = 12\nvalue = [1, 0, 1, 2, 8, 0, 0, 0, 0, 0]"] ;
37 -> 43 ;
44 [label="X[84] <= -24.139\ngini = 0.625\nsamples = 4\nvalue = [1, 0, 1, 2, 0, 0, 0, 0, 0, 0]"] ;
43 -> 44 ;
45 [label="gini = 0.0\nsamples = 2\nvalue = [0, 0, 0, 2, 0, 0, 0, 0, 0, 0]"] ;
44 -> 45 ;
46 [label="X[99] <= 3.227\ngini = 0.5\nsamples = 2\nvalue = [1, 0, 1, 0, 0, 0, 0, 0, 0, 0]"] ;
44 -> 46 ;
47 [label="gini = 0.0\nsamples = 1\nvalue = [0, 0, 1, 0, 0, 0, 0, 0, 0, 0]"] ;
46 -> 47 ;
48 [label="gini = 0.0\nsamples = 1\nvalue = [1, 0, 0, 0, 0, 0, 0, 0, 0, 0]"] ;
46 -> 48 ;
49 [label="gini = 0.0\nsamples = 8\nvalue = [0, 0, 0, 0, 8, 0, 0, 0, 0, 0]"] ;
43 -> 49 ;
50 [label="X[48] <= -17.247\ngini = 0.735\nsamples = 31\nvalue = [7, 3, 0, 7, 2, 0, 12, 0, 0, 0]"] ;
36 -> 50 ;
51 [label="X[39] <= -40.507\ngini = 0.569\nsamples = 12\nvalue = [5, 0, 0, 6, 0, 0, 1, 0, 0, 0]"] ;
50 -> 51 ;
52 [label="X[134] <= -6.896\ngini = 0.449\nsamples = 7\nvalue = [5, 0, 0, 1, 0, 0, 1, 0, 0, 0]"] ;
51 -> 52 ;
53 [label="X[61] <= 68.554\ngini = 0.5\nsamples = 2\nvalue = [0, 0, 0, 1, 0, 0, 1, 0, 0, 0]"] ;
52 -> 53 ;
54 [label="gini = 0.0\nsamples = 1\nvalue = [0, 0, 0, 1, 0, 0, 0, 0, 0, 0]"] ;
53 -> 54 ;
55 [label="gini = 0.0\nsamples = 1\nvalue = [0, 0, 0, 0, 0, 0, 1, 0, 0, 0]"] ;
53 -> 55 ;
56 [label="gini = 0.0\nsamples = 5\nvalue = [5, 0, 0, 0, 0, 0, 0, 0, 0, 0]"] ;
52 -> 56 ;
57 [label="gini = 0.0\nsamples = 5\nvalue = [0, 0, 0, 5, 0, 0, 0, 0, 0, 0]"] ;
51 -> 57 ;
58 [label="X[34] <= 4.934\ngini = 0.615\nsamples = 19\nvalue = [2, 3, 0, 1, 2, 0, 11, 0, 0, 0]"] ;
50 -> 58 ;
59 [label="X[59] <= 120.692\ngini = 0.153\nsamples = 12\nvalue = [1, 0, 0, 0, 0, 0, 11, 0, 0, 0]"] ;
58 -> 59 ;
60 [label="gini = 0.0\nsamples = 11\nvalue = [0, 0, 0, 0, 0, 0, 11, 0, 0, 0]"] ;
59 -> 60 ;
61 [label="gini = 0.0\nsamples = 1\nvalue = [1, 0, 0, 0, 0, 0, 0, 0, 0, 0]"] ;
59 -> 61 ;
62 [label="X[152] <= -29.645\ngini = 0.694\nsamples = 7\nvalue = [1, 3, 0, 1, 2, 0, 0, 0, 0, 0]"] ;
58 -> 62 ;
63 [label="gini = 0.0\nsamples = 3\nvalue = [0, 3, 0, 0, 0, 0, 0, 0, 0, 0]"] ;
62 -> 63 ;
64 [label="X[106] <= -26.477\ngini = 0.625\nsamples = 4\nvalue = [1, 0, 0, 1, 2, 0, 0, 0, 0, 0]"] ;
62 -> 64 ;
65 [label="X[160] <= 8.54\ngini = 0.5\nsamples = 2\nvalue = [1, 0, 0, 1, 0, 0, 0, 0, 0, 0]"] ;
64 -> 65 ;
66 [label="gini = 0.0\nsamples = 1\nvalue = [0, 0, 0, 1, 0, 0, 0, 0, 0, 0]"] ;
65 -> 66 ;
67 [label="gini = 0.0\nsamples = 1\nvalue = [1, 0, 0, 0, 0, 0, 0, 0, 0, 0]"] ;
65 -> 67 ;
68 [label="gini = 0.0\nsamples = 2\nvalue = [0, 0, 0, 0, 2, 0, 0, 0, 0, 0]"] ;
64 -> 68 ;
69 [label="X[12] <= 169.618\ngini = 0.291\nsamples = 85\nvalue = [71, 2, 0, 7, 0, 0, 5, 0, 0, 0]"] ;
1 -> 69 ;
70 [label="X[11] <= -254.538\ngini = 0.171\nsamples = 76\nvalue = [69, 0, 0, 3, 0, 0, 4, 0, 0, 0]"] ;
69 -> 70 ;
71 [label="X[27] <= 77.641\ngini = 0.642\nsamples = 9\nvalue = [4, 0, 0, 2, 0, 0, 3, 0, 0, 0]"] ;
70 -> 71 ;
72 [label="X[54] <= 23.582\ngini = 0.48\nsamples = 5\nvalue = [0, 0, 0, 2, 0, 0, 3, 0, 0, 0]"] ;
71 -> 72 ;
73 [label="gini = 0.0\nsamples = 3\nvalue = [0, 0, 0, 0, 0, 0, 3, 0, 0, 0]"] ;
72 -> 73 ;
74 [label="gini = 0.0\nsamples = 2\nvalue = [0, 0, 0, 2, 0, 0, 0, 0, 0, 0]"] ;
72 -> 74 ;
75 [label="gini = 0.0\nsamples = 4\nvalue = [4, 0, 0, 0, 0, 0, 0, 0, 0, 0]"] ;
71 -> 75 ;
76 [label="X[10] <= -189.907\ngini = 0.058\nsamples = 67\nvalue = [65, 0, 0, 1, 0, 0, 1, 0, 0, 0]"] ;
70 -> 76 ;
77 [label="gini = 0.0\nsamples = 1\nvalue = [0, 0, 0, 0, 0, 0, 1, 0, 0, 0]"] ;
76 -> 77 ;
78 [label="X[88] <= 105.421\ngini = 0.03\nsamples = 66\nvalue = [65, 0, 0, 1, 0, 0, 0, 0, 0, 0]"] ;
76 -> 78 ;
79 [label="gini = 0.0\nsamples = 65\nvalue = [65, 0, 0, 0, 0, 0, 0, 0, 0, 0]"] ;
78 -> 79 ;
80 [label="gini = 0.0\nsamples = 1\nvalue = [0, 0, 0, 1, 0, 0, 0, 0, 0, 0]"] ;
78 -> 80 ;
81 [label="X[104] <= -28.807\ngini = 0.691\nsamples = 9\nvalue = [2, 2, 0, 4, 0, 0, 1, 0, 0, 0]"] ;
69 -> 81 ;
82 [label="gini = 0.0\nsamples = 4\nvalue = [0, 0, 0, 4, 0, 0, 0, 0, 0, 0]"] ;
81 -> 82 ;
83 [label="X[144] <= 22.329\ngini = 0.64\nsamples = 5\nvalue = [2, 2, 0, 0, 0, 0, 1, 0, 0, 0]"] ;
81 -> 83 ;
84 [label="gini = 0.0\nsamples = 2\nvalue = [0, 2, 0, 0, 0, 0, 0, 0, 0, 0]"] ;
83 -> 84 ;
85 [label="X[44] <= -2.585\ngini = 0.444\nsamples = 3\nvalue = [2, 0, 0, 0, 0, 0, 1, 0, 0, 0]"] ;
83 -> 85 ;
86 [label="gini = 0.0\nsamples = 1\nvalue = [0, 0, 0, 0, 0, 0, 1, 0, 0, 0]"] ;
85 -> 86 ;
87 [label="gini = 0.0\nsamples = 2\nvalue = [2, 0, 0, 0, 0, 0, 0, 0, 0, 0]"] ;
85 -> 87 ;
88 [label="X[2] <= -415.961\ngini = 0.87\nsamples = 691\nvalue = [27, 3, 97, 8, 100, 83, 85, 102, 95, 91]"] ;
0 -> 88 [labeldistance=2.5, labelangle=-45, headlabel="False"] ;
89 [label="X[4] <= -144.894\ngini = 0.267\nsamples = 100\nvalue = [1, 0, 0, 0, 1, 1, 0, 10, 2, 85]"] ;
88 -> 89 ;
90 [label="X[125] <= 102.265\ngini = 0.028\nsamples = 71\nvalue = [0, 0, 0, 0, 0, 0, 0, 1, 0, 70]"] ;
89 -> 90 ;
91 [label="gini = 0.0\nsamples = 70\nvalue = [0, 0, 0, 0, 0, 0, 0, 0, 0, 70]"] ;
90 -> 91 ;
92 [label="gini = 0.0\nsamples = 1\nvalue = [0, 0, 0, 0, 0, 0, 0, 1, 0, 0]"] ;
90 -> 92 ;
93 [label="X[55] <= -3.792\ngini = 0.628\nsamples = 29\nvalue = [1, 0, 0, 0, 1, 1, 0, 9, 2, 15]"] ;
89 -> 93 ;
94 [label="X[148] <= 40.501\ngini = 0.596\nsamples = 15\nvalue = [1, 0, 0, 0, 0, 1, 0, 9, 2, 2]"] ;
93 -> 94 ;
95 [label="X[145] <= -62.093\ngini = 0.18\nsamples = 10\nvalue = [0, 0, 0, 0, 0, 1, 0, 9, 0, 0]"] ;
94 -> 95 ;
96 [label="gini = 0.0\nsamples = 1\nvalue = [0, 0, 0, 0, 0, 1, 0, 0, 0, 0]"] ;
95 -> 96 ;
97 [label="gini = 0.0\nsamples = 9\nvalue = [0, 0, 0, 0, 0, 0, 0, 9, 0, 0]"] ;
95 -> 97 ;
98 [label="X[0] <= -511.768\ngini = 0.64\nsamples = 5\nvalue = [1, 0, 0, 0, 0, 0, 0, 0, 2, 2]"] ;
94 -> 98 ;
99 [label="gini = 0.0\nsamples = 2\nvalue = [0, 0, 0, 0, 0, 0, 0, 0, 0, 2]"] ;
98 -> 99 ;
100 [label="X[45] <= -77.271\ngini = 0.444\nsamples = 3\nvalue = [1, 0, 0, 0, 0, 0, 0, 0, 2, 0]"] ;
98 -> 100 ;
101 [label="gini = 0.0\nsamples = 2\nvalue = [0, 0, 0, 0, 0, 0, 0, 0, 2, 0]"] ;
100 -> 101 ;
102 [label="gini = 0.0\nsamples = 1\nvalue = [1, 0, 0, 0, 0, 0, 0, 0, 0, 0]"] ;
100 -> 102 ;
103 [label="X[165] <= -94.629\ngini = 0.133\nsamples = 14\nvalue = [0, 0, 0, 0, 1, 0, 0, 0, 0, 13]"] ;
93 -> 103 ;
104 [label="gini = 0.0\nsamples = 1\nvalue = [0, 0, 0, 0, 1, 0, 0, 0, 0, 0]"] ;
103 -> 104 ;
105 [label="gini = 0.0\nsamples = 13\nvalue = [0, 0, 0, 0, 0, 0, 0, 0, 0, 13]"] ;
103 -> 105 ;
106 [label="X[0] <= -1147.664\ngini = 0.854\nsamples = 591\nvalue = [26, 3, 97, 8, 99, 82, 85, 92, 93, 6]"] ;
88 -> 106 ;
107 [label="X[7] <= -270.862\ngini = 0.587\nsamples = 185\nvalue = [1, 0, 2, 0, 2, 76, 4, 91, 4, 5]"] ;
106 -> 107 ;
108 [label="X[48] <= 78.661\ngini = 0.2\nsamples = 81\nvalue = [0, 0, 0, 0, 0, 8, 0, 72, 0, 1]"] ;
107 -> 108 ;
109 [label="X[82] <= -84.626\ngini = 0.123\nsamples = 77\nvalue = [0, 0, 0, 0, 0, 4, 0, 72, 0, 1]"] ;
108 -> 109 ;
110 [label="X[35] <= -61.93\ngini = 0.444\nsamples = 3\nvalue = [0, 0, 0, 0, 0, 2, 0, 0, 0, 1]"] ;
109 -> 110 ;
111 [label="gini = 0.0\nsamples = 2\nvalue = [0, 0, 0, 0, 0, 2, 0, 0, 0, 0]"] ;
110 -> 111 ;
112 [label="gini = 0.0\nsamples = 1\nvalue = [0, 0, 0, 0, 0, 0, 0, 0, 0, 1]"] ;
110 -> 112 ;
113 [label="X[88] <= -138.989\ngini = 0.053\nsamples = 74\nvalue = [0, 0, 0, 0, 0, 2, 0, 72, 0, 0]"] ;
109 -> 113 ;
114 [label="gini = 0.0\nsamples = 1\nvalue = [0, 0, 0, 0, 0, 1, 0, 0, 0, 0]"] ;
113 -> 114 ;
115 [label="X[55] <= 164.27\ngini = 0.027\nsamples = 73\nvalue = [0, 0, 0, 0, 0, 1, 0, 72, 0, 0]"] ;
113 -> 115 ;
116 [label="gini = 0.0\nsamples = 72\nvalue = [0, 0, 0, 0, 0, 0, 0, 72, 0, 0]"] ;
115 -> 116 ;
117 [label="gini = 0.0\nsamples = 1\nvalue = [0, 0, 0, 0, 0, 1, 0, 0, 0, 0]"] ;
115 -> 117 ;
118 [label="gini = 0.0\nsamples = 4\nvalue = [0, 0, 0, 0, 0, 4, 0, 0, 0, 0]"] ;
108 -> 118 ;
119 [label="X[28] <= 58.248\ngini = 0.534\nsamples = 104\nvalue = [1, 0, 2, 0, 2, 68, 4, 19, 4, 4]"] ;
107 -> 119 ;
120 [label="X[121] <= -9.899\ngini = 0.697\nsamples = 60\nvalue = [1, 0, 2, 0, 2, 28, 3, 16, 4, 4]"] ;
119 -> 120 ;
121 [label="X[1] <= 765.674\ngini = 0.436\nsamples = 27\nvalue = [1, 0, 1, 0, 1, 20, 0, 2, 0, 2]"] ;
120 -> 121 ;
122 [label="X[1] <= -552.537\ngini = 0.299\nsamples = 24\nvalue = [1, 0, 1, 0, 1, 20, 0, 0, 0, 1]"] ;
121 -> 122 ;
123 [label="X[21] <= 22.308\ngini = 0.5\nsamples = 2\nvalue = [1, 0, 1, 0, 0, 0, 0, 0, 0, 0]"] ;
122 -> 123 ;
124 [label="gini = 0.0\nsamples = 1\nvalue = [1, 0, 0, 0, 0, 0, 0, 0, 0, 0]"] ;
123 -> 124 ;
125 [label="gini = 0.0\nsamples = 1\nvalue = [0, 0, 1, 0, 0, 0, 0, 0, 0, 0]"] ;
123 -> 125 ;
126 [label="X[45] <= -116.663\ngini = 0.169\nsamples = 22\nvalue = [0, 0, 0, 0, 1, 20, 0, 0, 0, 1]"] ;
122 -> 126 ;
127 [label="gini = 0.0\nsamples = 1\nvalue = [0, 0, 0, 0, 1, 0, 0, 0, 0, 0]"] ;
126 -> 127 ;
128 [label="X[153] <= 68.856\ngini = 0.091\nsamples = 21\nvalue = [0, 0, 0, 0, 0, 20, 0, 0, 0, 1]"] ;
126 -> 128 ;
129 [label="gini = 0.0\nsamples = 20\nvalue = [0, 0, 0, 0, 0, 20, 0, 0, 0, 0]"] ;
128 -> 129 ;
130 [label="gini = 0.0\nsamples = 1\nvalue = [0, 0, 0, 0, 0, 0, 0, 0, 0, 1]"] ;
128 -> 130 ;
131 [label="X[70] <= -35.787\ngini = 0.444\nsamples = 3\nvalue = [0, 0, 0, 0, 0, 0, 0, 2, 0, 1]"] ;
121 -> 131 ;
132 [label="gini = 0.0\nsamples = 1\nvalue = [0, 0, 0, 0, 0, 0, 0, 0, 0, 1]"] ;
131 -> 132 ;
133 [label="gini = 0.0\nsamples = 2\nvalue = [0, 0, 0, 0, 0, 0, 0, 2, 0, 0]"] ;
131 -> 133 ;
134 [label="X[35] <= -37.924\ngini = 0.733\nsamples = 33\nvalue = [0, 0, 1, 0, 1, 8, 3, 14, 4, 2]"] ;
120 -> 134 ;
135 [label="X[56] <= 22.347\ngini = 0.727\nsamples = 17\nvalue = [0, 0, 1, 0, 0, 7, 3, 2, 4, 0]"] ;
134 -> 135 ;
136 [label="X[164] <= 12.594\ngini = 0.691\nsamples = 9\nvalue = [0, 0, 1, 0, 0, 0, 2, 2, 4, 0]"] ;
135 -> 136 ;
137 [label="X[113] <= 0.33\ngini = 0.64\nsamples = 5\nvalue = [0, 0, 1, 0, 0, 0, 2, 2, 0, 0]"] ;
136 -> 137 ;
138 [label="X[18] <= 39.475\ngini = 0.444\nsamples = 3\nvalue = [0, 0, 1, 0, 0, 0, 0, 2, 0, 0]"] ;
137 -> 138 ;
139 [label="gini = 0.0\nsamples = 1\nvalue = [0, 0, 1, 0, 0, 0, 0, 0, 0, 0]"] ;
138 -> 139 ;
140 [label="gini = 0.0\nsamples = 2\nvalue = [0, 0, 0, 0, 0, 0, 0, 2, 0, 0]"] ;
138 -> 140 ;
141 [label="gini = 0.0\nsamples = 2\nvalue = [0, 0, 0, 0, 0, 0, 2, 0, 0, 0]"] ;
137 -> 141 ;
142 [label="gini = 0.0\nsamples = 4\nvalue = [0, 0, 0, 0, 0, 0, 0, 0, 4, 0]"] ;
136 -> 142 ;
143 [label="X[58] <= -43.306\ngini = 0.219\nsamples = 8\nvalue = [0, 0, 0, 0, 0, 7, 1, 0, 0, 0]"] ;
135 -> 143 ;
144 [label="gini = 0.0\nsamples = 1\nvalue = [0, 0, 0, 0, 0, 0, 1, 0, 0, 0]"] ;
143 -> 144 ;
145 [label="gini = 0.0\nsamples = 7\nvalue = [0, 0, 0, 0, 0, 7, 0, 0, 0, 0]"] ;
143 -> 145 ;
146 [label="X[33] <= -107.928\ngini = 0.414\nsamples = 16\nvalue = [0, 0, 0, 0, 1, 1, 0, 12, 0, 2]"] ;
134 -> 146 ;
147 [label="gini = 0.0\nsamples = 2\nvalue = [0, 0, 0, 0, 0, 0, 0, 0, 0, 2]"] ;
146 -> 147 ;
148 [label="X[149] <= 32.082\ngini = 0.255\nsamples = 14\nvalue = [0, 0, 0, 0, 1, 1, 0, 12, 0, 0]"] ;
146 -> 148 ;
149 [label="gini = 0.0\nsamples = 12\nvalue = [0, 0, 0, 0, 0, 0, 0, 12, 0, 0]"] ;
148 -> 149 ;
150 [label="X[146] <= 25.012\ngini = 0.5\nsamples = 2\nvalue = [0, 0, 0, 0, 1, 1, 0, 0, 0, 0]"] ;
148 -> 150 ;
151 [label="gini = 0.0\nsamples = 1\nvalue = [0, 0, 0, 0, 0, 1, 0, 0, 0, 0]"] ;
150 -> 151 ;
152 [label="gini = 0.0\nsamples = 1\nvalue = [0, 0, 0, 0, 1, 0, 0, 0, 0, 0]"] ;
150 -> 152 ;
153 [label="X[18] <= 65.621\ngini = 0.168\nsamples = 44\nvalue = [0, 0, 0, 0, 0, 40, 1, 3, 0, 0]"] ;
119 -> 153 ;
154 [label="X[3] <= -762.633\ngini = 0.05\nsamples = 39\nvalue = [0, 0, 0, 0, 0, 38, 0, 1, 0, 0]"] ;
153 -> 154 ;
155 [label="gini = 0.0\nsamples = 1\nvalue = [0, 0, 0, 0, 0, 0, 0, 1, 0, 0]"] ;
154 -> 155 ;
156 [label="gini = 0.0\nsamples = 38\nvalue = [0, 0, 0, 0, 0, 38, 0, 0, 0, 0]"] ;
154 -> 156 ;
157 [label="X[33] <= 29.848\ngini = 0.64\nsamples = 5\nvalue = [0, 0, 0, 0, 0, 2, 1, 2, 0, 0]"] ;
153 -> 157 ;
158 [label="gini = 0.0\nsamples = 2\nvalue = [0, 0, 0, 0, 0, 2, 0, 0, 0, 0]"] ;
157 -> 158 ;
159 [label="X[62] <= 36.63\ngini = 0.444\nsamples = 3\nvalue = [0, 0, 0, 0, 0, 0, 1, 2, 0, 0]"] ;
157 -> 159 ;
160 [label="gini = 0.0\nsamples = 2\nvalue = [0, 0, 0, 0, 0, 0, 0, 2, 0, 0]"] ;
159 -> 160 ;
161 [label="gini = 0.0\nsamples = 1\nvalue = [0, 0, 0, 0, 0, 0, 1, 0, 0, 0]"] ;
159 -> 161 ;
162 [label="X[2] <= 271.525\ngini = 0.796\nsamples = 406\nvalue = [25, 3, 95, 8, 97, 6, 81, 1, 89, 1]"] ;
106 -> 162 ;
163 [label="X[0] <= 1074.247\ngini = 0.698\nsamples = 163\nvalue = [21, 1, 8, 6, 16, 5, 22, 1, 82, 1]"] ;
162 -> 163 ;
164 [label="X[1] <= -425.656\ngini = 0.455\nsamples = 111\nvalue = [7, 0, 2, 3, 6, 5, 5, 1, 81, 1]"] ;
163 -> 164 ;
165 [label="X[5] <= 324.112\ngini = 0.791\nsamples = 15\nvalue = [5, 0, 1, 3, 2, 0, 2, 0, 2, 0]"] ;
164 -> 165 ;
166 [label="X[7] <= 125.4\ngini = 0.765\nsamples = 9\nvalue = [0, 0, 1, 3, 2, 0, 1, 0, 2, 0]"] ;
165 -> 166 ;
167 [label="gini = 0.0\nsamples = 3\nvalue = [0, 0, 0, 3, 0, 0, 0, 0, 0, 0]"] ;
166 -> 167 ;
168 [label="X[139] <= -30.13\ngini = 0.722\nsamples = 6\nvalue = [0, 0, 1, 0, 2, 0, 1, 0, 2, 0]"] ;
166 -> 168 ;
169 [label="gini = 0.0\nsamples = 2\nvalue = [0, 0, 0, 0, 0, 0, 0, 0, 2, 0]"] ;
168 -> 169 ;
170 [label="X[9] <= 203.547\ngini = 0.625\nsamples = 4\nvalue = [0, 0, 1, 0, 2, 0, 1, 0, 0, 0]"] ;
168 -> 170 ;
171 [label="X[126] <= 20.191\ngini = 0.5\nsamples = 2\nvalue = [0, 0, 1, 0, 0, 0, 1, 0, 0, 0]"] ;
170 -> 171 ;
172 [label="gini = 0.0\nsamples = 1\nvalue = [0, 0, 0, 0, 0, 0, 1, 0, 0, 0]"] ;
171 -> 172 ;
173 [label="gini = 0.0\nsamples = 1\nvalue = [0, 0, 1, 0, 0, 0, 0, 0, 0, 0]"] ;
171 -> 173 ;
174 [label="gini = 0.0\nsamples = 2\nvalue = [0, 0, 0, 0, 2, 0, 0, 0, 0, 0]"] ;
170 -> 174 ;
175 [label="X[112] <= 89.95\ngini = 0.278\nsamples = 6\nvalue = [5, 0, 0, 0, 0, 0, 1, 0, 0, 0]"] ;
165 -> 175 ;
176 [label="gini = 0.0\nsamples = 5\nvalue = [5, 0, 0, 0, 0, 0, 0, 0, 0, 0]"] ;
175 -> 176 ;
177 [label="gini = 0.0\nsamples = 1\nvalue = [0, 0, 0, 0, 0, 0, 1, 0, 0, 0]"] ;
175 -> 177 ;
178 [label="X[6] <= -487.504\ngini = 0.317\nsamples = 96\nvalue = [2, 0, 1, 0, 4, 5, 3, 1, 79, 1]"] ;
164 -> 178 ;
179 [label="gini = 0.0\nsamples = 3\nvalue = [0, 0, 0, 0, 3, 0, 0, 0, 0, 0]"] ;
178 -> 179 ;
180 [label="X[3] <= 1052.364\ngini = 0.274\nsamples = 93\nvalue = [2, 0, 1, 0, 1, 5, 3, 1, 79, 1]"] ;
178 -> 180 ;
181 [label="X[5] <= 748.865\ngini = 0.227\nsamples = 90\nvalue = [2, 0, 1, 0, 1, 2, 3, 1, 79, 1]"] ;
180 -> 181 ;
182 [label="X[17] <= -223.742\ngini = 0.174\nsamples = 87\nvalue = [0, 0, 1, 0, 1, 2, 2, 1, 79, 1]"] ;
181 -> 182 ;
183 [label="X[74] <= -6.725\ngini = 0.72\nsamples = 5\nvalue = [0, 0, 1, 0, 1, 0, 2, 0, 1, 0]"] ;
182 -> 183 ;
184 [label="gini = 0.0\nsamples = 2\nvalue = [0, 0, 0, 0, 0, 0, 2, 0, 0, 0]"] ;
183 -> 184 ;
185 [label="X[126] <= -20.048\ngini = 0.667\nsamples = 3\nvalue = [0, 0, 1, 0, 1, 0, 0, 0, 1, 0]"] ;
183 -> 185 ;
186 [label="gini = 0.0\nsamples = 1\nvalue = [0, 0, 0, 0, 0, 0, 0, 0, 1, 0]"] ;
185 -> 186 ;
187 [label="X[138] <= 89.86\ngini = 0.5\nsamples = 2\nvalue = [0, 0, 1, 0, 1, 0, 0, 0, 0, 0]"] ;
185 -> 187 ;
188 [label="gini = 0.0\nsamples = 1\nvalue = [0, 0, 1, 0, 0, 0, 0, 0, 0, 0]"] ;
187 -> 188 ;
189 [label="gini = 0.0\nsamples = 1\nvalue = [0, 0, 0, 0, 1, 0, 0, 0, 0, 0]"] ;
187 -> 189 ;
190 [label="X[101] <= 97.001\ngini = 0.094\nsamples = 82\nvalue = [0, 0, 0, 0, 0, 2, 0, 1, 78, 1]"] ;
182 -> 190 ;
191 [label="X[111] <= -135.333\ngini = 0.049\nsamples = 80\nvalue = [0, 0, 0, 0, 0, 1, 0, 1, 78, 0]"] ;
190 -> 191 ;
192 [label="gini = 0.0\nsamples = 1\nvalue = [0, 0, 0, 0, 0, 1, 0, 0, 0, 0]"] ;
191 -> 192 ;
193 [label="X[52] <= 178.866\ngini = 0.025\nsamples = 79\nvalue = [0, 0, 0, 0, 0, 0, 0, 1, 78, 0]"] ;
191 -> 193 ;
194 [label="gini = 0.0\nsamples = 78\nvalue = [0, 0, 0, 0, 0, 0, 0, 0, 78, 0]"] ;
193 -> 194 ;
195 [label="gini = 0.0\nsamples = 1\nvalue = [0, 0, 0, 0, 0, 0, 0, 1, 0, 0]"] ;
193 -> 195 ;
196 [label="X[79] <= 37.206\ngini = 0.5\nsamples = 2\nvalue = [0, 0, 0, 0, 0, 1, 0, 0, 0, 1]"] ;
190 -> 196 ;
197 [label="gini = 0.0\nsamples = 1\nvalue = [0, 0, 0, 0, 0, 0, 0, 0, 0, 1]"] ;
196 -> 197 ;
198 [label="gini = 0.0\nsamples = 1\nvalue = [0, 0, 0, 0, 0, 1, 0, 0, 0, 0]"] ;
196 -> 198 ;
199 [label="X[158] <= 33.079\ngini = 0.444\nsamples = 3\nvalue = [2, 0, 0, 0, 0, 0, 1, 0, 0, 0]"] ;
181 -> 199 ;
200 [label="gini = 0.0\nsamples = 2\nvalue = [2, 0, 0, 0, 0, 0, 0, 0, 0, 0]"] ;
199 -> 200 ;
201 [label="gini = 0.0\nsamples = 1\nvalue = [0, 0, 0, 0, 0, 0, 1, 0, 0, 0]"] ;
199 -> 201 ;
202 [label="gini = 0.0\nsamples = 3\nvalue = [0, 0, 0, 0, 0, 3, 0, 0, 0, 0]"] ;
180 -> 202 ;
203 [label="X[5] <= 125.684\ngini = 0.766\nsamples = 52\nvalue = [14, 1, 6, 3, 10, 0, 17, 0, 1, 0]"] ;
163 -> 203 ;
204 [label="X[23] <= -39.613\ngini = 0.659\nsamples = 19\nvalue = [0, 1, 1, 2, 10, 0, 4, 0, 1, 0]"] ;
203 -> 204 ;
205 [label="X[171] <= -22.353\ngini = 0.32\nsamples = 5\nvalue = [0, 0, 0, 1, 0, 0, 4, 0, 0, 0]"] ;
204 -> 205 ;
206 [label="gini = 0.0\nsamples = 1\nvalue = [0, 0, 0, 1, 0, 0, 0, 0, 0, 0]"] ;
205 -> 206 ;
207 [label="gini = 0.0\nsamples = 4\nvalue = [0, 0, 0, 0, 0, 0, 4, 0, 0, 0]"] ;
205 -> 207 ;
208 [label="X[146] <= 24.754\ngini = 0.469\nsamples = 14\nvalue = [0, 1, 1, 1, 10, 0, 0, 0, 1, 0]"] ;
204 -> 208 ;
209 [label="gini = 0.0\nsamples = 10\nvalue = [0, 0, 0, 0, 10, 0, 0, 0, 0, 0]"] ;
208 -> 209 ;
210 [label="X[30] <= -269.208\ngini = 0.75\nsamples = 4\nvalue = [0, 1, 1, 1, 0, 0, 0, 0, 1, 0]"] ;
208 -> 210 ;
211 [label="gini = 0.0\nsamples = 1\nvalue = [0, 1, 0, 0, 0, 0, 0, 0, 0, 0]"] ;
210 -> 211 ;
212 [label="X[4] <= 146.908\ngini = 0.667\nsamples = 3\nvalue = [0, 0, 1, 1, 0, 0, 0, 0, 1, 0]"] ;
210 -> 212 ;
213 [label="gini = 0.0\nsamples = 1\nvalue = [0, 0, 1, 0, 0, 0, 0, 0, 0, 0]"] ;
212 -> 213 ;
214 [label="X[90] <= 8.128\ngini = 0.5\nsamples = 2\nvalue = [0, 0, 0, 1, 0, 0, 0, 0, 1, 0]"] ;
212 -> 214 ;
215 [label="gini = 0.0\nsamples = 1\nvalue = [0, 0, 0, 1, 0, 0, 0, 0, 0, 0]"] ;
214 -> 215 ;
216 [label="gini = 0.0\nsamples = 1\nvalue = [0, 0, 0, 0, 0, 0, 0, 0, 1, 0]"] ;
214 -> 216 ;
217 [label="X[4] <= -286.577\ngini = 0.641\nsamples = 33\nvalue = [14, 0, 5, 1, 0, 0, 13, 0, 0, 0]"] ;
203 -> 217 ;
218 [label="gini = 0.0\nsamples = 4\nvalue = [0, 0, 4, 0, 0, 0, 0, 0, 0, 0]"] ;
217 -> 218 ;
219 [label="X[165] <= -17.413\ngini = 0.564\nsamples = 29\nvalue = [14, 0, 1, 1, 0, 0, 13, 0, 0, 0]"] ;
217 -> 219 ;
220 [label="X[61] <= 151.318\ngini = 0.18\nsamples = 10\nvalue = [1, 0, 0, 0, 0, 0, 9, 0, 0, 0]"] ;
219 -> 220 ;
221 [label="gini = 0.0\nsamples = 9\nvalue = [0, 0, 0, 0, 0, 0, 9, 0, 0, 0]"] ;
220 -> 221 ;
222 [label="gini = 0.0\nsamples = 1\nvalue = [1, 0, 0, 0, 0, 0, 0, 0, 0, 0]"] ;
220 -> 222 ;
223 [label="X[66] <= 15.589\ngini = 0.482\nsamples = 19\nvalue = [13, 0, 1, 1, 0, 0, 4, 0, 0, 0]"] ;
219 -> 223 ;
224 [label="X[19] <= -334.386\ngini = 0.142\nsamples = 13\nvalue = [12, 0, 1, 0, 0, 0, 0, 0, 0, 0]"] ;
223 -> 224 ;
225 [label="gini = 0.0\nsamples = 1\nvalue = [0, 0, 1, 0, 0, 0, 0, 0, 0, 0]"] ;
224 -> 225 ;
226 [label="gini = 0.0\nsamples = 12\nvalue = [12, 0, 0, 0, 0, 0, 0, 0, 0, 0]"] ;
224 -> 226 ;
227 [label="X[91] <= -111.42\ngini = 0.5\nsamples = 6\nvalue = [1, 0, 0, 1, 0, 0, 4, 0, 0, 0]"] ;
223 -> 227 ;
228 [label="X[117] <= -19.051\ngini = 0.5\nsamples = 2\nvalue = [1, 0, 0, 1, 0, 0, 0, 0, 0, 0]"] ;
227 -> 228 ;
229 [label="gini = 0.0\nsamples = 1\nvalue = [0, 0, 0, 1, 0, 0, 0, 0, 0, 0]"] ;
228 -> 229 ;
230 [label="gini = 0.0\nsamples = 1\nvalue = [1, 0, 0, 0, 0, 0, 0, 0, 0, 0]"] ;
228 -> 230 ;
231 [label="gini = 0.0\nsamples = 4\nvalue = [0, 0, 0, 0, 0, 0, 4, 0, 0, 0]"] ;
227 -> 231 ;
232 [label="X[16] <= -161.62\ngini = 0.701\nsamples = 243\nvalue = [4, 2, 87, 2, 81, 1, 59, 0, 7, 0]"] ;
162 -> 232 ;
233 [label="X[40] <= 123.509\ngini = 0.229\nsamples = 40\nvalue = [0, 0, 2, 0, 35, 0, 2, 0, 1, 0]"] ;
232 -> 233 ;
234 [label="X[135] <= 68.84\ngini = 0.059\nsamples = 33\nvalue = [0, 0, 0, 0, 32, 0, 0, 0, 1, 0]"] ;
233 -> 234 ;
235 [label="gini = 0.0\nsamples = 32\nvalue = [0, 0, 0, 0, 32, 0, 0, 0, 0, 0]"] ;
234 -> 235 ;
236 [label="gini = 0.0\nsamples = 1\nvalue = [0, 0, 0, 0, 0, 0, 0, 0, 1, 0]"] ;
234 -> 236 ;
237 [label="X[147] <= -3.096\ngini = 0.653\nsamples = 7\nvalue = [0, 0, 2, 0, 3, 0, 2, 0, 0, 0]"] ;
233 -> 237 ;
238 [label="X[30] <= 13.922\ngini = 0.5\nsamples = 4\nvalue = [0, 0, 2, 0, 0, 0, 2, 0, 0, 0]"] ;
237 -> 238 ;
239 [label="gini = 0.0\nsamples = 2\nvalue = [0, 0, 0, 0, 0, 0, 2, 0, 0, 0]"] ;
238 -> 239 ;
240 [label="gini = 0.0\nsamples = 2\nvalue = [0, 0, 2, 0, 0, 0, 0, 0, 0, 0]"] ;
238 -> 240 ;
241 [label="gini = 0.0\nsamples = 3\nvalue = [0, 0, 0, 0, 3, 0, 0, 0, 0, 0]"] ;
237 -> 241 ;
242 [label="X[10] <= -178.131\ngini = 0.693\nsamples = 203\nvalue = [4, 2, 85, 2, 46, 1, 57, 0, 6, 0]"] ;
232 -> 242 ;
243 [label="X[40] <= -98.375\ngini = 0.62\nsamples = 55\nvalue = [1, 0, 9, 1, 10, 1, 31, 0, 2, 0]"] ;
242 -> 243 ;
244 [label="X[178] <= -1.279\ngini = 0.48\nsamples = 10\nvalue = [1, 0, 7, 0, 1, 0, 0, 0, 1, 0]"] ;
243 -> 244 ;
245 [label="gini = 0.0\nsamples = 7\nvalue = [0, 0, 7, 0, 0, 0, 0, 0, 0, 0]"] ;
244 -> 245 ;
246 [label="X[141] <= -3.431\ngini = 0.667\nsamples = 3\nvalue = [1, 0, 0, 0, 1, 0, 0, 0, 1, 0]"] ;
244 -> 246 ;
247 [label="gini = 0.0\nsamples = 1\nvalue = [0, 0, 0, 0, 0, 0, 0, 0, 1, 0]"] ;
246 -> 247 ;
248 [label="X[110] <= 12.096\ngini = 0.5\nsamples = 2\nvalue = [1, 0, 0, 0, 1, 0, 0, 0, 0, 0]"] ;
246 -> 248 ;
249 [label="gini = 0.0\nsamples = 1\nvalue = [0, 0, 0, 0, 1, 0, 0, 0, 0, 0]"] ;
248 -> 249 ;
250 [label="gini = 0.0\nsamples = 1\nvalue = [1, 0, 0, 0, 0, 0, 0, 0, 0, 0]"] ;
248 -> 250 ;
251 [label="X[4] <= 103.412\ngini = 0.482\nsamples = 45\nvalue = [0, 0, 2, 1, 9, 1, 31, 0, 1, 0]"] ;
243 -> 251 ;
252 [label="X[31] <= 54.82\ngini = 0.258\nsamples = 35\nvalue = [0, 0, 2, 0, 2, 1, 30, 0, 0, 0]"] ;
251 -> 252 ;
253 [label="X[6] <= 407.688\ngini = 0.119\nsamples = 32\nvalue = [0, 0, 1, 0, 0, 1, 30, 0, 0, 0]"] ;
252 -> 253 ;
254 [label="X[7] <= -358.52\ngini = 0.062\nsamples = 31\nvalue = [0, 0, 0, 0, 0, 1, 30, 0, 0, 0]"] ;
253 -> 254 ;
255 [label="gini = 0.0\nsamples = 1\nvalue = [0, 0, 0, 0, 0, 1, 0, 0, 0, 0]"] ;
254 -> 255 ;
256 [label="gini = 0.0\nsamples = 30\nvalue = [0, 0, 0, 0, 0, 0, 30, 0, 0, 0]"] ;
254 -> 256 ;
257 [label="gini = 0.0\nsamples = 1\nvalue = [0, 0, 1, 0, 0, 0, 0, 0, 0, 0]"] ;
253 -> 257 ;
258 [label="X[25] <= -6.507\ngini = 0.444\nsamples = 3\nvalue = [0, 0, 1, 0, 2, 0, 0, 0, 0, 0]"] ;
252 -> 258 ;
259 [label="gini = 0.0\nsamples = 1\nvalue = [0, 0, 1, 0, 0, 0, 0, 0, 0, 0]"] ;
258 -> 259 ;
260 [label="gini = 0.0\nsamples = 2\nvalue = [0, 0, 0, 0, 2, 0, 0, 0, 0, 0]"] ;
258 -> 260 ;
261 [label="X[118] <= 18.713\ngini = 0.48\nsamples = 10\nvalue = [0, 0, 0, 1, 7, 0, 1, 0, 1, 0]"] ;
251 -> 261 ;
262 [label="gini = 0.0\nsamples = 7\nvalue = [0, 0, 0, 0, 7, 0, 0, 0, 0, 0]"] ;
261 -> 262 ;
263 [label="X[68] <= -7.692\ngini = 0.667\nsamples = 3\nvalue = [0, 0, 0, 1, 0, 0, 1, 0, 1, 0]"] ;
261 -> 263 ;
264 [label="gini = 0.0\nsamples = 1\nvalue = [0, 0, 0, 1, 0, 0, 0, 0, 0, 0]"] ;
263 -> 264 ;
265 [label="X[116] <= -50.18\ngini = 0.5\nsamples = 2\nvalue = [0, 0, 0, 0, 0, 0, 1, 0, 1, 0]"] ;
263 -> 265 ;
266 [label="gini = 0.0\nsamples = 1\nvalue = [0, 0, 0, 0, 0, 0, 0, 0, 1, 0]"] ;
265 -> 266 ;
267 [label="gini = 0.0\nsamples = 1\nvalue = [0, 0, 0, 0, 0, 0, 1, 0, 0, 0]"] ;
265 -> 267 ;
268 [label="X[12] <= 117.807\ngini = 0.645\nsamples = 148\nvalue = [3, 2, 76, 1, 36, 0, 26, 0, 4, 0]"] ;
242 -> 268 ;
269 [label="X[16] <= -38.803\ngini = 0.58\nsamples = 117\nvalue = [2, 2, 70, 0, 20, 0, 21, 0, 2, 0]"] ;
268 -> 269 ;
270 [label="X[5] <= -199.493\ngini = 0.694\nsamples = 39\nvalue = [2, 0, 14, 0, 15, 0, 6, 0, 2, 0]"] ;
269 -> 270 ;
271 [label="X[41] <= 45.506\ngini = 0.465\nsamples = 20\nvalue = [0, 0, 1, 0, 14, 0, 4, 0, 1, 0]"] ;
270 -> 271 ;
272 [label="X[52] <= -102.41\ngini = 0.124\nsamples = 15\nvalue = [0, 0, 1, 0, 14, 0, 0, 0, 0, 0]"] ;
271 -> 272 ;
273 [label="gini = 0.0\nsamples = 1\nvalue = [0, 0, 1, 0, 0, 0, 0, 0, 0, 0]"] ;
272 -> 273 ;
274 [label="gini = 0.0\nsamples = 14\nvalue = [0, 0, 0, 0, 14, 0, 0, 0, 0, 0]"] ;
272 -> 274 ;
275 [label="X[17] <= -153.486\ngini = 0.32\nsamples = 5\nvalue = [0, 0, 0, 0, 0, 0, 4, 0, 1, 0]"] ;
271 -> 275 ;
276 [label="gini = 0.0\nsamples = 1\nvalue = [0, 0, 0, 0, 0, 0, 0, 0, 1, 0]"] ;
275 -> 276 ;
277 [label="gini = 0.0\nsamples = 4\nvalue = [0, 0, 0, 0, 0, 0, 4, 0, 0, 0]"] ;
275 -> 277 ;
278 [label="X[20] <= 25.902\ngini = 0.504\nsamples = 19\nvalue = [2, 0, 13, 0, 1, 0, 2, 0, 1, 0]"] ;
270 -> 278 ;
279 [label="X[3] <= 519.913\ngini = 0.231\nsamples = 15\nvalue = [0, 0, 13, 0, 0, 0, 2, 0, 0, 0]"] ;
278 -> 279 ;
280 [label="gini = 0.0\nsamples = 13\nvalue = [0, 0, 13, 0, 0, 0, 0, 0, 0, 0]"] ;
279 -> 280 ;
281 [label="gini = 0.0\nsamples = 2\nvalue = [0, 0, 0, 0, 0, 0, 2, 0, 0, 0]"] ;
279 -> 281 ;
282 [label="X[5] <= 298.26\ngini = 0.625\nsamples = 4\nvalue = [2, 0, 0, 0, 1, 0, 0, 0, 1, 0]"] ;
278 -> 282 ;
283 [label="X[156] <= -19.944\ngini = 0.5\nsamples = 2\nvalue = [0, 0, 0, 0, 1, 0, 0, 0, 1, 0]"] ;
282 -> 283 ;
284 [label="gini = 0.0\nsamples = 1\nvalue = [0, 0, 0, 0, 0, 0, 0, 0, 1, 0]"] ;
283 -> 284 ;
285 [label="gini = 0.0\nsamples = 1\nvalue = [0, 0, 0, 0, 1, 0, 0, 0, 0, 0]"] ;
283 -> 285 ;
286 [label="gini = 0.0\nsamples = 2\nvalue = [2, 0, 0, 0, 0, 0, 0, 0, 0, 0]"] ;
282 -> 286 ;
287 [label="X[139] <= 12.78\ngini = 0.443\nsamples = 78\nvalue = [0, 2, 56, 0, 5, 0, 15, 0, 0, 0]"] ;
269 -> 287 ;
288 [label="X[32] <= -112.571\ngini = 0.253\nsamples = 50\nvalue = [0, 1, 43, 0, 3, 0, 3, 0, 0, 0]"] ;
287 -> 288 ;
289 [label="X[115] <= -35.325\ngini = 0.375\nsamples = 4\nvalue = [0, 0, 0, 0, 3, 0, 1, 0, 0, 0]"] ;
288 -> 289 ;
290 [label="gini = 0.0\nsamples = 1\nvalue = [0, 0, 0, 0, 0, 0, 1, 0, 0, 0]"] ;
289 -> 290 ;
291 [label="gini = 0.0\nsamples = 3\nvalue = [0, 0, 0, 0, 3, 0, 0, 0, 0, 0]"] ;
289 -> 291 ;
292 [label="X[113] <= -43.947\ngini = 0.124\nsamples = 46\nvalue = [0, 1, 43, 0, 0, 0, 2, 0, 0, 0]"] ;
288 -> 292 ;
293 [label="gini = 0.0\nsamples = 2\nvalue = [0, 0, 0, 0, 0, 0, 2, 0, 0, 0]"] ;
292 -> 293 ;
294 [label="X[163] <= 76.023\ngini = 0.044\nsamples = 44\nvalue = [0, 1, 43, 0, 0, 0, 0, 0, 0, 0]"] ;
292 -> 294 ;
295 [label="gini = 0.0\nsamples = 43\nvalue = [0, 0, 43, 0, 0, 0, 0, 0, 0, 0]"] ;
294 -> 295 ;
296 [label="gini = 0.0\nsamples = 1\nvalue = [0, 1, 0, 0, 0, 0, 0, 0, 0, 0]"] ;
294 -> 296 ;
297 [label="X[26] <= -27.545\ngini = 0.594\nsamples = 28\nvalue = [0, 1, 13, 0, 2, 0, 12, 0, 0, 0]"] ;
287 -> 297 ;
298 [label="X[83] <= 72.217\ngini = 0.562\nsamples = 18\nvalue = [0, 1, 4, 0, 2, 0, 11, 0, 0, 0]"] ;
297 -> 298 ;
299 [label="X[35] <= 94.426\ngini = 0.436\nsamples = 15\nvalue = [0, 1, 1, 0, 2, 0, 11, 0, 0, 0]"] ;
298 -> 299 ;
300 [label="X[87] <= 77.512\ngini = 0.153\nsamples = 12\nvalue = [0, 1, 0, 0, 0, 0, 11, 0, 0, 0]"] ;
299 -> 300 ;
301 [label="gini = 0.0\nsamples = 11\nvalue = [0, 0, 0, 0, 0, 0, 11, 0, 0, 0]"] ;
300 -> 301 ;
302 [label="gini = 0.0\nsamples = 1\nvalue = [0, 1, 0, 0, 0, 0, 0, 0, 0, 0]"] ;
300 -> 302 ;
303 [label="X[150] <= -2.513\ngini = 0.444\nsamples = 3\nvalue = [0, 0, 1, 0, 2, 0, 0, 0, 0, 0]"] ;
299 -> 303 ;
304 [label="gini = 0.0\nsamples = 1\nvalue = [0, 0, 1, 0, 0, 0, 0, 0, 0, 0]"] ;
303 -> 304 ;
305 [label="gini = 0.0\nsamples = 2\nvalue = [0, 0, 0, 0, 2, 0, 0, 0, 0, 0]"] ;
303 -> 305 ;
306 [label="gini = 0.0\nsamples = 3\nvalue = [0, 0, 3, 0, 0, 0, 0, 0, 0, 0]"] ;
298 -> 306 ;
307 [label="X[148] <= 44.002\ngini = 0.18\nsamples = 10\nvalue = [0, 0, 9, 0, 0, 0, 1, 0, 0, 0]"] ;
297 -> 307 ;
308 [label="gini = 0.0\nsamples = 9\nvalue = [0, 0, 9, 0, 0, 0, 0, 0, 0, 0]"] ;
307 -> 308 ;
309 [label="gini = 0.0\nsamples = 1\nvalue = [0, 0, 0, 0, 0, 0, 1, 0, 0, 0]"] ;
307 -> 309 ;
310 [label="X[53] <= 28.829\ngini = 0.664\nsamples = 31\nvalue = [1, 0, 6, 1, 16, 0, 5, 0, 2, 0]"] ;
268 -> 310 ;
311 [label="X[14] <= 4.946\ngini = 0.776\nsamples = 19\nvalue = [1, 0, 5, 1, 5, 0, 5, 0, 2, 0]"] ;
310 -> 311 ;
312 [label="X[19] <= -138.777\ngini = 0.747\nsamples = 15\nvalue = [1, 0, 5, 1, 5, 0, 1, 0, 2, 0]"] ;
311 -> 312 ;
313 [label="gini = 0.0\nsamples = 4\nvalue = [0, 0, 0, 0, 4, 0, 0, 0, 0, 0]"] ;
312 -> 313 ;
314 [label="X[173] <= 6.227\ngini = 0.727\nsamples = 11\nvalue = [1, 0, 5, 1, 1, 0, 1, 0, 2, 0]"] ;
312 -> 314 ;
315 [label="X[32] <= 134.165\ngini = 0.278\nsamples = 6\nvalue = [0, 0, 5, 0, 1, 0, 0, 0, 0, 0]"] ;
314 -> 315 ;
316 [label="gini = 0.0\nsamples = 5\nvalue = [0, 0, 5, 0, 0, 0, 0, 0, 0, 0]"] ;
315 -> 316 ;
317 [label="gini = 0.0\nsamples = 1\nvalue = [0, 0, 0, 0, 1, 0, 0, 0, 0, 0]"] ;
315 -> 317 ;
318 [label="X[54] <= -85.587\ngini = 0.72\nsamples = 5\nvalue = [1, 0, 0, 1, 0, 0, 1, 0, 2, 0]"] ;
314 -> 318 ;
319 [label="gini = 0.0\nsamples = 2\nvalue = [0, 0, 0, 0, 0, 0, 0, 0, 2, 0]"] ;
318 -> 319 ;
320 [label="X[5] <= -144.06\ngini = 0.667\nsamples = 3\nvalue = [1, 0, 0, 1, 0, 0, 1, 0, 0, 0]"] ;
318 -> 320 ;
321 [label="gini = 0.0\nsamples = 1\nvalue = [0, 0, 0, 0, 0, 0, 1, 0, 0, 0]"] ;
320 -> 321 ;
322 [label="X[158] <= -27.521\ngini = 0.5\nsamples = 2\nvalue = [1, 0, 0, 1, 0, 0, 0, 0, 0, 0]"] ;
320 -> 322 ;
323 [label="gini = 0.0\nsamples = 1\nvalue = [1, 0, 0, 0, 0, 0, 0, 0, 0, 0]"] ;
322 -> 323 ;
324 [label="gini = 0.0\nsamples = 1\nvalue = [0, 0, 0, 1, 0, 0, 0, 0, 0, 0]"] ;
322 -> 324 ;
325 [label="gini = 0.0\nsamples = 4\nvalue = [0, 0, 0, 0, 0, 0, 4, 0, 0, 0]"] ;
311 -> 325 ;
326 [label="X[129] <= 46.36\ngini = 0.153\nsamples = 12\nvalue = [0, 0, 1, 0, 11, 0, 0, 0, 0, 0]"] ;
310 -> 326 ;
327 [label="gini = 0.0\nsamples = 11\nvalue = [0, 0, 0, 0, 11, 0, 0, 0, 0, 0]"] ;
326 -> 327 ;
328 [label="gini = 0.0\nsamples = 1\nvalue = [0, 0, 1, 0, 0, 0, 0, 0, 0, 0]"] ;
326 -> 328 ;
}
